{
  "activationFunctionFactory": {
    "activationFunctionMap": {
      "TANH": {
        "type": "basicneuralnetwork.activationfunctions.TanhActivationFunction",
        "data": {}
      },
      "RELU": {
        "type": "basicneuralnetwork.activationfunctions.ReLuActivationFunction",
        "data": {}
      },
      "SIGMOID": {
        "type": "basicneuralnetwork.activationfunctions.SigmoidActivationFunction",
        "data": {}
      }
    }
  },
  "random": {
    "seed": 230513050701318,
    "nextNextGaussian": 0.0,
    "haveNextNextGaussian": false
  },
  "inputNodes": 3,
  "hiddenLayers": 2,
  "hiddenNodes": 9,
  "outputNodes": 10,
  "weights": [
    {
      "mat": {
        "type": "org.ejml.data.DMatrixRMaj",
        "data": {
          "data": [
            -1.9923390563468586,
            -13.097956642549123,
            33.52161011402911,
            -3.611342425925075,
            -27.448428586549067,
            36.69160153926689,
            4.022995694558582,
            1.385066228365828,
            3.0047371770312834,
            2.4088137182707894,
            2.7346714369172087,
            3.118911958976692,
            25.213690987190507,
            -27.317912444596832,
            1.7136096365434612,
            2.5873301055078604,
            3.0806589091608374,
            2.551662406604192,
            34.6842833137763,
            7.019662882118033,
            -11.204193220154638,
            57.21985016367696,
            -5.973776281540951,
            -42.13256996726655,
            10.361970103016846,
            6.8291367887078245,
            -9.000999652152256
          ],
          "numRows": 9,
          "numCols": 3
        }
      },
      "ops": {
        "type": "org.ejml.simple.ops.SimpleOperations_DDRM",
        "data": {}
      }
    },
    {
      "mat": {
        "type": "org.ejml.data.DMatrixRMaj",
        "data": {
          "data": [
            8.673985387786626,
            -6.843453443191761,
            -2.3695461193410776,
            -2.1747706822916566,
            10.622264836621493,
            -2.3786645173510323,
            6.78660943726062,
            -5.8454390053352165,
            0.3261759517087737,
            1.2101218721200255,
            -3.8592729260686025,
            1.8075878835568941,
            3.2358749536740445,
            -9.106495091314141,
            2.3495147599582973,
            -3.361346582912771,
            0.04734874885979119,
            -0.4963118527709283,
            6.230098111221683,
            0.8533409110096135,
            0.32615438582324746,
            -0.029006398315979426,
            -4.349411753380918,
            1.095264353582691,
            -1.1769052835214584,
            -8.269202247516468,
            0.4846628965261491,
            -3.0283440122656127,
            15.968495754699124,
            -2.887835411351513,
            -2.1798955539748968,
            13.302366831902221,
            -2.9346713278412078,
            -6.827340929380215,
            5.591049680355742,
            -4.160681324018592,
            -5.755034732340646,
            -10.565399735279941,
            2.8353879630820176,
            2.957376852515086,
            8.544594065376321,
            2.447397091743686,
            -5.761789174581364,
            -11.88435529640558,
            3.355956725412509,
            0.4336936599824067,
            -6.925814914726321,
            0.5623997957232613,
            1.830029350156735,
            5.664152782629234,
            1.8165484676785002,
            -2.4385238861165424,
            0.5419103247202844,
            1.5492624296013473,
            2.507183369603449,
            -6.147201790202663,
            -0.11172967739705585,
            -0.4114036180788767,
            -6.295431516941369,
            0.1533549256025231,
            10.136999104042841,
            1.6641323141547817,
            0.7598895441125095,
            -3.1875473444117945,
            8.435587750799044,
            -0.20577870681833949,
            -0.9213257976840407,
            5.555367643794722,
            -0.7291537451056805,
            3.076080839627631,
            6.2970944474522,
            -1.424391245828606,
            -0.1978263956828529,
            0.6405996930874863,
            1.5812268265454805,
            2.1270012495195325,
            0.6459474348659018,
            1.62485159075533,
            -0.031014595555908585,
            0.5105204413702699,
            1.7151079685135135
          ],
          "numRows": 9,
          "numCols": 9
        }
      },
      "ops": {
        "type": "org.ejml.simple.ops.SimpleOperations_DDRM",
        "data": {}
      }
    },
    {
      "mat": {
        "type": "org.ejml.data.DMatrixRMaj",
        "data": {
          "data": [
            -2.527760685358065,
            -2.260442383330784,
            -2.8167555043681194,
            5.198924275606156,
            5.42018937744511,
            -1.9993926937470006,
            3.693940965672592,
            -1.8409024492126183,
            -2.8068834712606368,
            2.953182742449758,
            -3.9925934992601193,
            -2.056665306984114,
            -6.761671555547196,
            2.6806251289831344,
            -0.22147665336216119,
            0.5413040605547175,
            0.661490874645533,
            -1.6993630924022836,
            -2.3357169414578394,
            4.303629940852624,
            -5.9838489636119006,
            -3.5443699261548245,
            -2.7402092147939627,
            -0.7158951745234693,
            1.5421983280471807,
            0.5195007578997997,
            -0.8893342936917112,
            -0.38155707762959806,
            1.5626575868786605,
            2.1797085089851227,
            -2.2456414733570305,
            1.0800164070688432,
            2.9028414514540932,
            -0.412343124933367,
            -5.57271679664349,
            -1.6885259404417925,
            -2.4457743307426094,
            2.6591489161008104,
            1.7961308997822705,
            4.061670246404844,
            -4.483531324070701,
            -2.4751743982484316,
            -4.045985968557693,
            -0.46078989917945906,
            -1.1972170484960467,
            2.151923686168223,
            -3.8954018992640473,
            3.001243046791911,
            0.5870245510637729,
            3.3931793147484726,
            -0.6724697879322094,
            -4.688999774220385,
            -0.553373894094306,
            -2.199673182745953,
            3.5159076252235586,
            -2.98968511273028,
            -0.03734789421786966,
            3.6498693442447143,
            -4.021736018998978,
            -1.235182454497795,
            2.53544911460217,
            -1.1225420421722352,
            -2.5689713207708826,
            -3.2265985809927265,
            -1.791076346747087,
            -4.142360271971299,
            3.6636857985808007,
            -2.3395264075448745,
            0.4871473580788372,
            -2.9642488739682085,
            0.3328395897493882,
            -1.5216284504495532,
            1.783528956882448,
            1.0080990958001539,
            3.9602414486977437,
            -3.58221483249447,
            -3.2110227029473553,
            -3.9390786599433896,
            1.817082410413718,
            0.5999638949642828,
            -1.6734909875021926,
            -1.041494735219297,
            0.33119006956674585,
            -0.3809905220842976,
            -0.2753953645774962,
            0.2814702653855283,
            -0.7635486683395526,
            -2.102257360324272,
            0.060083590905119076,
            -1.4700730943496196
          ],
          "numRows": 10,
          "numCols": 9
        }
      },
      "ops": {
        "type": "org.ejml.simple.ops.SimpleOperations_DDRM",
        "data": {}
      }
    }
  ],
  "biases": [
    {
      "mat": {
        "type": "org.ejml.data.DMatrixRMaj",
        "data": {
          "data": [
            -7.550545099595632,
            2.085995185562536,
            5.360610192654226,
            5.898193855387411,
            -2.29277882879494,
            5.528023078708634,
            -24.101547848298097,
            -15.056129658466809,
            0.35619736810694147
          ],
          "numRows": 9,
          "numCols": 1
        }
      },
      "ops": {
        "type": "org.ejml.simple.ops.SimpleOperations_DDRM",
        "data": {}
      }
    },
    {
      "mat": {
        "type": "org.ejml.data.DMatrixRMaj",
        "data": {
          "data": [
            -2.2871176753951876,
            3.0483040157236054,
            1.2167427492156069,
            -2.4526460429231407,
            1.2914802210111302,
            0.6365395802031966,
            0.10241456098712087,
            -1.8115457222479114,
            1.6025319085744856
          ],
          "numRows": 9,
          "numCols": 1
        }
      },
      "ops": {
        "type": "org.ejml.simple.ops.SimpleOperations_DDRM",
        "data": {}
      }
    },
    {
      "mat": {
        "type": "org.ejml.data.DMatrixRMaj",
        "data": {
          "data": [
            -3.037915162178293,
            -0.8013294924780725,
            -1.0788485222575734,
            -1.0129941989294624,
            -2.596862375492837,
            -2.041296087201146,
            -1.2700672487376188,
            -0.49994337536216477,
            -2.107234089534707,
            -0.8594459588049133
          ],
          "numRows": 10,
          "numCols": 1
        }
      },
      "ops": {
        "type": "org.ejml.simple.ops.SimpleOperations_DDRM",
        "data": {}
      }
    }
  ],
  "learningRate": 0.01,
  "activationFunctionKey": "SIGMOID"
}