{
  "activationFunctionFactory": {
    "activationFunctionMap": {
      "TANH": {
        "type": "basicneuralnetwork.activationfunctions.TanhActivationFunction",
        "data": {}
      },
      "RELU": {
        "type": "basicneuralnetwork.activationfunctions.ReLuActivationFunction",
        "data": {}
      },
      "SIGMOID": {
        "type": "basicneuralnetwork.activationfunctions.SigmoidActivationFunction",
        "data": {}
      }
    }
  },
  "random": {
    "seed": 137025446815493,
    "nextNextGaussian": 0.0,
    "haveNextNextGaussian": false
  },
  "inputNodes": 3,
  "hiddenLayers": 2,
  "hiddenNodes": 9,
  "outputNodes": 10,
  "weights": [
    {
      "mat": {
        "type": "org.ejml.data.DMatrixRMaj",
        "data": {
          "data": [
            -0.427595263896393,
            -0.23873004230992148,
            -0.6123961052985006,
            -0.5518139692012737,
            -0.19046073708201733,
            0.556051524177084,
            0.4600726050402744,
            -0.8614278235513021,
            -0.8157565580251637,
            0.9880040521950354,
            0.6843229294243764,
            0.20483107794212435,
            0.8708707428985707,
            0.010502821132908124,
            0.9442276363742891,
            0.35462381360362993,
            0.15968918880716537,
            0.25802342646075005,
            -0.3901012624771965,
            0.3217971252300172,
            0.6038633818396848,
            -0.23745090585231732,
            0.6023008174037938,
            0.6391498367780899,
            -0.34723458435185334,
            0.2914605920529028,
            0.6278619132131211
          ],
          "numRows": 9,
          "numCols": 3
        }
      },
      "ops": {
        "type": "org.ejml.simple.ops.SimpleOperations_DDRM",
        "data": {}
      }
    },
    {
      "mat": {
        "type": "org.ejml.data.DMatrixRMaj",
        "data": {
          "data": [
            -0.2017343468572388,
            0.9595965633710618,
            0.32773521924512633,
            0.5526852036184123,
            -0.4050059076442228,
            -0.80199582558757,
            -0.7186577007946199,
            0.05996591298495684,
            -0.35325501903561823,
            0.6250234072080969,
            0.07187788433877326,
            0.7442281765099028,
            0.03756529814373362,
            0.02682012647591674,
            0.6864417890688863,
            0.6475831103296084,
            -0.38167450809557324,
            0.7787832778938945,
            -0.2722774034900753,
            -0.4227669052839204,
            0.21749525517441537,
            -0.7699305750016298,
            0.4117638356628281,
            0.07776711434158688,
            -0.10622056819875271,
            -0.116279151754341,
            0.6872494976107103,
            0.38496670807128647,
            -0.40596058860311346,
            -0.27132775276435067,
            -0.24733178506093625,
            -0.04808212790536596,
            -0.31765511016821696,
            -0.19774825694765294,
            -0.9716321755472253,
            0.7250649844187449,
            0.7003289847068734,
            -0.5533103863076789,
            0.7808146797407648,
            -0.5183548971741051,
            -0.5961239613471969,
            0.17190923465840294,
            0.855594596133297,
            -0.4483372146277049,
            0.26496035819432334,
            -0.5753524224608705,
            -0.5126244089389201,
            -0.8069423565502029,
            -0.23687413210419975,
            -0.405793964584464,
            -0.4679886676911344,
            -0.9005171187976599,
            0.5086024887080811,
            0.8590684980299924,
            -0.5053403296040968,
            -0.9632808570170333,
            0.8011365369029599,
            -0.7501493624108817,
            -0.6966586426638431,
            -0.6765447033504768,
            -0.5171900089969779,
            0.7380186323248147,
            -0.1735112504394724,
            0.5893732074668204,
            0.5354311241550987,
            -0.30834764515239527,
            -0.5635509724870443,
            -0.7229673509258533,
            0.19585515257780858,
            0.43052233928483713,
            -0.01915885409649859,
            -0.10472231801655452,
            0.3173839918822494,
            0.16782503015822528,
            -0.3247068406800305,
            -0.34489729073492487,
            -0.039079983355776095,
            -0.4186130208473077,
            0.37241878747050655,
            -0.5060301635950947,
            -0.21598795549814861
          ],
          "numRows": 9,
          "numCols": 9
        }
      },
      "ops": {
        "type": "org.ejml.simple.ops.SimpleOperations_DDRM",
        "data": {}
      }
    },
    {
      "mat": {
        "type": "org.ejml.data.DMatrixRMaj",
        "data": {
          "data": [
            -0.9942948827072878,
            0.7521940810087815,
            0.30544073166875935,
            -0.5978772521572012,
            -0.3112858842913444,
            -0.5227184060696107,
            -0.13401824685719524,
            -0.3901873390611229,
            -0.7242476987230155,
            -0.5376219105349179,
            -0.0550422186297256,
            -0.9054522561372498,
            -0.031276819463570325,
            -0.25620496839906,
            -0.8173924458880942,
            -0.23421895305651272,
            0.6843075570085613,
            0.6067712082873439,
            0.22171036241500058,
            0.06310884837024702,
            0.6236683938099524,
            0.8086376305632869,
            0.9341909330961609,
            0.70588836569614,
            -0.0668822582418947,
            -0.5969099986862928,
            -0.5431732992237588,
            -0.013641971559654428,
            0.12082576664407099,
            -0.28867045172424993,
            -0.6373472650650307,
            0.02161664676434608,
            0.6488444034466367,
            0.7381458691805851,
            0.294306661152889,
            -0.7291578568903351,
            -0.31673664744946745,
            0.8244459751996358,
            -0.9836492100962052,
            -0.9395693129570688,
            0.44977251952578756,
            0.005039763834503199,
            0.023653126324901148,
            0.6233650887109055,
            0.9387882250076951,
            0.7079034947807901,
            -0.4001108750746642,
            0.98317332461226,
            -0.6893442981288193,
            -0.712698117958578,
            0.6634253068974245,
            -0.9096026117145655,
            -0.9068248115225437,
            -0.7147646687990492,
            -0.7273315830749452,
            -0.12879607046665184,
            -0.37145080341175707,
            0.35638868677709423,
            0.6046916623873726,
            0.7162541631206505,
            0.26470397379104965,
            -0.08583060995749361,
            0.6424219984541512,
            -0.7771902825906708,
            -0.7703624678137151,
            -0.8628506071306581,
            -0.02372440878986297,
            0.5660902642871538,
            0.48055628805659134,
            0.4859815454776703,
            -0.32961316681090086,
            0.5760019695134408,
            0.8384033374567671,
            0.4269007132387531,
            0.38293590627157564,
            0.8032280774689684,
            0.062108667826330934,
            -0.9662069361595526,
            0.5927435123743648,
            -0.541273596876437,
            -0.11366204137875112,
            0.2508491413093435,
            0.2785118334270417,
            0.4702290488977788,
            -0.269153544936915,
            -0.692398942067913,
            0.11066040998745061,
            0.5722968625372258,
            -0.37507832644464795,
            -0.33468062572468205
          ],
          "numRows": 10,
          "numCols": 9
        }
      },
      "ops": {
        "type": "org.ejml.simple.ops.SimpleOperations_DDRM",
        "data": {}
      }
    }
  ],
  "biases": [
    {
      "mat": {
        "type": "org.ejml.data.DMatrixRMaj",
        "data": {
          "data": [
            -0.40478285503518674,
            -0.934026665824268,
            -0.7753826508068832,
            0.5584133626592773,
            -0.927197886891582,
            0.21563971420329422,
            0.21601741810778147,
            0.6566624680746251,
            -0.06362266626735569
          ],
          "numRows": 9,
          "numCols": 1
        }
      },
      "ops": {
        "type": "org.ejml.simple.ops.SimpleOperations_DDRM",
        "data": {}
      }
    },
    {
      "mat": {
        "type": "org.ejml.data.DMatrixRMaj",
        "data": {
          "data": [
            0.04905565361095611,
            0.03789176592328075,
            0.04568707305781974,
            -0.29444046828876363,
            -0.9575893399552428,
            -0.2765256333847932,
            0.6549260928908409,
            0.9119851883656036,
            0.14306318213353492
          ],
          "numRows": 9,
          "numCols": 1
        }
      },
      "ops": {
        "type": "org.ejml.simple.ops.SimpleOperations_DDRM",
        "data": {}
      }
    },
    {
      "mat": {
        "type": "org.ejml.data.DMatrixRMaj",
        "data": {
          "data": [
            -0.6665235302745327,
            -0.47919524110619083,
            -0.07215548926752918,
            0.14159449291954615,
            0.5319954513505742,
            -0.5833335132388499,
            -0.27140499205885116,
            0.6510523437529897,
            0.3834581205196509,
            -0.6456802740353775
          ],
          "numRows": 10,
          "numCols": 1
        }
      },
      "ops": {
        "type": "org.ejml.simple.ops.SimpleOperations_DDRM",
        "data": {}
      }
    }
  ],
  "learningRate": 0.01,
  "activationFunctionKey": "SIGMOID"
}