{
  "activationFunctionFactory": {
    "activationFunctionMap": {
      "TANH": {
        "type": "basicneuralnetwork.activationfunctions.TanhActivationFunction",
        "data": {}
      },
      "RELU": {
        "type": "basicneuralnetwork.activationfunctions.ReLuActivationFunction",
        "data": {}
      },
      "SIGMOID": {
        "type": "basicneuralnetwork.activationfunctions.SigmoidActivationFunction",
        "data": {}
      }
    }
  },
  "random": {
    "seed": 99823101594213,
    "nextNextGaussian": 0.0,
    "haveNextNextGaussian": false
  },
  "inputNodes": 3,
  "hiddenLayers": 2,
  "hiddenNodes": 9,
  "outputNodes": 10,
  "weights": [
    {
      "mat": {
        "type": "org.ejml.data.DMatrixRMaj",
        "data": {
          "data": [
            26.054095431173,
            -20.43808066933251,
            2.518946664453645,
            -13.635125580396767,
            -14.771516697502244,
            33.694200651451204,
            33.4474544370259,
            -34.18637907373796,
            -1.4458760093894274,
            35.46938056373031,
            -10.414744585873411,
            -10.840448119893665,
            -15.668585596183464,
            -16.372542571980297,
            -15.459448195980995,
            -0.7585248083478255,
            16.440507879412195,
            -15.573867955900397,
            14.864670315346233,
            3.6723185510870597,
            0.15237131151260527,
            -34.364409866379624,
            14.321535030254237,
            20.480714113446943,
            6.187053195027903,
            23.013006388883195,
            -42.47791987654477
          ],
          "numRows": 9,
          "numCols": 3
        }
      },
      "ops": {
        "type": "org.ejml.simple.ops.SimpleOperations_DDRM",
        "data": {}
      }
    },
    {
      "mat": {
        "type": "org.ejml.data.DMatrixRMaj",
        "data": {
          "data": [
            -3.071153215524064,
            2.9253710721553,
            -4.917507024763844,
            -1.414741100600399,
            0.4064274868814194,
            3.8060042110368935,
            -4.248924641708794,
            9.920148532637262,
            -6.130805370904383,
            3.6518763082976933,
            0.3980729416326078,
            -6.7364253333442035,
            -2.0604138529236735,
            -2.082147174634443,
            9.543134296505205,
            4.148817212508919,
            -0.15905715700631662,
            0.6829063064981798,
            11.35148793929748,
            1.8029356864296433,
            -2.030369339342844,
            -1.7509205955502078,
            0.4911292774857231,
            -3.450088542376538,
            6.758717421548763,
            -7.014345496729321,
            2.8045160859883866,
            1.3210496893739532,
            5.639820565751524,
            1.8868059475901422,
            4.170718403271652,
            5.8066787065398975,
            4.266801802449304,
            4.217945245252336,
            -10.126346522518412,
            -7.59779729985456,
            2.0874083513627784,
            -2.519479066746604,
            3.7578057421497237,
            4.135864097055085,
            -3.4369817679296673,
            2.283539411604754,
            -0.7373540941226512,
            4.185727303940985,
            -0.9011074345105617,
            7.248645487586766,
            -5.054695881904707,
            3.0449415634771007,
            -3.0332719377416795,
            -0.7019055446263089,
            -4.936868420673922,
            -1.6111598632113737,
            -0.8083070578201427,
            9.77817925896695,
            1.4818197040520336,
            -11.31472518654035,
            2.2500307652760565,
            6.277971069045326,
            -0.43609207717424425,
            6.240232479494049,
            -5.894269783721534,
            2.7694151763919397,
            6.712215836320937,
            -9.187755984700786,
            -5.509220248404825,
            -4.921419442390737,
            5.267507854153911,
            2.879805216123253,
            6.817247771340489,
            2.6242524962540865,
            -6.699059829808294,
            3.9602856200342367,
            0.6506891482814449,
            2.58892675187578,
            2.173318963709058,
            0.9213598201934015,
            0.9619863823844923,
            2.3150960632774242,
            0.8520891258642791,
            1.4176444588667307,
            1.0510376104391745
          ],
          "numRows": 9,
          "numCols": 9
        }
      },
      "ops": {
        "type": "org.ejml.simple.ops.SimpleOperations_DDRM",
        "data": {}
      }
    },
    {
      "mat": {
        "type": "org.ejml.data.DMatrixRMaj",
        "data": {
          "data": [
            -1.6885976693306417,
            -0.8634407162753736,
            3.353457358666683,
            -3.4670382000169515,
            -1.3850042073047368,
            2.910150157557551,
            1.984960717431687,
            -3.3526584330282034,
            -1.9485131401636338,
            -2.915618586212617,
            2.341487305247782,
            2.9006057520238615,
            2.423445141292298,
            -3.5394473251920466,
            4.265920261946891,
            -0.6762412038482791,
            4.1735730287340225,
            -4.2098810927204235,
            -4.552247160534624,
            3.653115338481417,
            -3.7765317775433553,
            1.8703760988355067,
            -1.2319421433098194,
            -4.0908179883355,
            2.2746202803551983,
            1.4355275551319198,
            -2.235008643398718,
            2.2813879802986077,
            6.8151789884591105,
            -1.4696443506745889,
            -5.35532025431964,
            -1.1340780455893014,
            -1.1766239566176844,
            3.1426191271561654,
            0.11888672092733224,
            -3.817122862565676,
            2.42044257597925,
            -2.788590939724765,
            -2.669229999854785,
            -3.7008329512938736,
            -0.3905841290116746,
            -0.14533712902150933,
            -4.747630618019386,
            -3.662701882447147,
            0.40991392778912955,
            0.6130828867063979,
            -4.421792060020108,
            -4.772274872535199,
            2.5960120519835788,
            -0.21841583899699382,
            -2.083359404944889,
            2.8751477181682525,
            -4.3960688697583725,
            -1.1648922495671241,
            -3.8924125353054695,
            -3.325026423788088,
            3.1939872344577167,
            2.9829835303940775,
            0.11804009186478573,
            -2.698397535260113,
            -2.8174356589553513,
            -2.6744549464030376,
            -0.22372979596148715,
            -5.212070661617064,
            -3.2699838844340903,
            -3.5560270497395323,
            -2.1788063910094717,
            0.9514917209859775,
            1.211858066724853,
            1.2712686227564334,
            3.256315021591779,
            -1.5121044103286618,
            2.0788482874149152,
            3.5044469322627174,
            -3.835313576192232,
            5.534672581796454,
            -2.926900872326564,
            -1.5918696035745048,
            -5.255077612543802,
            2.9828076262967183,
            -3.367974091130859,
            1.8749953968805542,
            -4.378474914241462,
            -1.0770153702655128,
            -1.1988332188515196,
            -6.0449046205052355,
            -0.6071499795744387,
            1.6492405865943978,
            1.7496564084526722,
            -0.43327802756767353
          ],
          "numRows": 10,
          "numCols": 9
        }
      },
      "ops": {
        "type": "org.ejml.simple.ops.SimpleOperations_DDRM",
        "data": {}
      }
    }
  ],
  "biases": [
    {
      "mat": {
        "type": "org.ejml.data.DMatrixRMaj",
        "data": {
          "data": [
            -11.325007875958985,
            2.5210037938903382,
            -1.8865151328231946,
            -2.2253736743035337,
            5.2019515873998285,
            -3.402466392762713,
            -12.550566361027792,
            -2.570419084816089,
            8.062814706603337
          ],
          "numRows": 9,
          "numCols": 1
        }
      },
      "ops": {
        "type": "org.ejml.simple.ops.SimpleOperations_DDRM",
        "data": {}
      }
    },
    {
      "mat": {
        "type": "org.ejml.data.DMatrixRMaj",
        "data": {
          "data": [
            7.125074269573072,
            -0.9069507572516509,
            -9.62681739698838,
            -4.160659253966758,
            1.151324537374807,
            -4.683109503545535,
            4.19309279482309,
            1.9133428898702562,
            2.7562265746659804
          ],
          "numRows": 9,
          "numCols": 1
        }
      },
      "ops": {
        "type": "org.ejml.simple.ops.SimpleOperations_DDRM",
        "data": {}
      }
    },
    {
      "mat": {
        "type": "org.ejml.data.DMatrixRMaj",
        "data": {
          "data": [
            -1.669450299995068,
            -3.499974403439118,
            -2.722144547983151,
            -3.6630189185678765,
            1.2278865282407037,
            -1.4903298600090498,
            0.28736013884329664,
            -1.0674844379716661,
            -2.7528697076777617,
            -0.25774091910975544
          ],
          "numRows": 10,
          "numCols": 1
        }
      },
      "ops": {
        "type": "org.ejml.simple.ops.SimpleOperations_DDRM",
        "data": {}
      }
    }
  ],
  "learningRate": 0.01,
  "activationFunctionKey": "SIGMOID"
}