{
  "activationFunctionFactory": {
    "activationFunctionMap": {
      "TANH": {
        "type": "basicneuralnetwork.activationfunctions.TanhActivationFunction",
        "data": {}
      },
      "RELU": {
        "type": "basicneuralnetwork.activationfunctions.ReLuActivationFunction",
        "data": {}
      },
      "SIGMOID": {
        "type": "basicneuralnetwork.activationfunctions.SigmoidActivationFunction",
        "data": {}
      }
    }
  },
  "random": {
    "seed": 185151613349965,
    "nextNextGaussian": 0.0,
    "haveNextNextGaussian": false
  },
  "inputNodes": 3,
  "hiddenLayers": 2,
  "hiddenNodes": 9,
  "outputNodes": 10,
  "weights": [
    {
      "mat": {
        "type": "org.ejml.data.DMatrixRMaj",
        "data": {
          "data": [
            3.693313826396928,
            3.219705710385801,
            3.354144578211655,
            4.066554817962487,
            3.0604523023783123,
            3.314674869732187,
            12.75745263300548,
            38.55783807024935,
            7.392456958248529,
            55.209234881580954,
            -111.61610948193703,
            111.36435561146048,
            10.120821927607562,
            -216.43361844826043,
            253.7031778406731,
            -31.566021464820786,
            -70.66262397826627,
            4.244212979153278,
            63.977765518203455,
            -39.54077800092897,
            -7.515201924497441,
            -62.114520752678835,
            74.86190135136744,
            -10.41842947387811,
            331.87577442407115,
            -3.791251077849453,
            -206.73752342128702
          ],
          "numRows": 9,
          "numCols": 3
        }
      },
      "ops": {
        "type": "org.ejml.simple.ops.SimpleOperations_DDRM",
        "data": {}
      }
    },
    {
      "mat": {
        "type": "org.ejml.data.DMatrixRMaj",
        "data": {
          "data": [
            -4.095697688538549,
            -2.764442912774048,
            -5.286672490156881,
            16.793654042838263,
            -1.7425626391172984,
            -7.448084862617582,
            -6.578912853859614,
            8.342416061274724,
            8.350744880829371,
            5.267584912581157,
            4.453519593671916,
            12.383963734053664,
            -5.824487712687412,
            -8.480492922162197,
            -0.8685479007987161,
            -20.59167447663507,
            -19.725054982020502,
            6.977504258774707,
            1.0449236572903207,
            0.4775566351402998,
            0.8555349195201136,
            -3.4666638620247463,
            9.621915999760425,
            -0.045386690608721865,
            6.274482935736651,
            -1.2953148076403693,
            -2.1589438839768036,
            -1.3872354798740345,
            -2.4009165242287933,
            -5.853703643477437,
            0.32991708985791907,
            -5.261927613385284,
            -2.3099621354422606,
            4.429925257151626,
            -26.76126742718384,
            11.258376956853379,
            -0.31679190641521454,
            -0.36882948738344307,
            -2.382569129063125,
            -0.7279970180882099,
            -6.877073226744459,
            1.9553370499303577,
            11.736346077597721,
            8.918492268370311,
            -4.804098719589762,
            2.177730528868062,
            1.1238491594498436,
            -3.667294789273344,
            19.15139136308388,
            -0.484149901214712,
            13.009772891992682,
            -20.45568373849982,
            -0.46056225156217756,
            -14.333363307586916,
            -5.669872989995795,
            -6.67961224861194,
            -18.84310225475956,
            -0.547575688844255,
            2.7894660982948323,
            15.746035755844176,
            -2.9825105939879726,
            -1.5470670929545416,
            23.185519252851815,
            3.405604377141716,
            3.1791968272855153,
            -1.7102121650371431,
            3.311382819657306,
            -36.01317380056064,
            18.440361949237253,
            -30.41971343035237,
            11.222814996281496,
            22.649628042827235,
            3.721420705705723,
            2.9704790482921943,
            0.26710439221577403,
            -4.739534297785624,
            -10.192197968289408,
            0.8186937780443091,
            8.164263125092207,
            -10.975297169022227,
            -1.748865383653631
          ],
          "numRows": 9,
          "numCols": 9
        }
      },
      "ops": {
        "type": "org.ejml.simple.ops.SimpleOperations_DDRM",
        "data": {}
      }
    },
    {
      "mat": {
        "type": "org.ejml.data.DMatrixRMaj",
        "data": {
          "data": [
            1.489950052152006,
            -3.5369546279002524,
            -5.473267019131555,
            5.904333912551913,
            -6.229188559446383,
            0.22814463646194247,
            6.950527344025422,
            4.352205058024672,
            2.230845449423719,
            -6.099897403755565,
            3.335842328651491,
            -3.279271851023403,
            7.081700348573443,
            1.1727435852886903,
            -5.3989376735011145,
            -7.769113760456505,
            2.783884719489348,
            0.17471959457099412,
            1.0423948400459935,
            -4.194285691485311,
            -2.801750610612374,
            -5.185265896216294,
            2.618310938464717,
            -7.93986192812212,
            -5.988904358910407,
            6.068391290280841,
            4.099100567646887,
            -5.24920021363133,
            6.189194307319617,
            -6.903484615285658,
            -5.604500306216761,
            5.1692024767069915,
            2.3032889739800706,
            -4.768238383431502,
            2.6792664289790777,
            -5.0033608722676775,
            -0.5390177452296199,
            -0.2603638876982036,
            0.11925629629285078,
            -3.006645219684547,
            -7.750730766292551,
            5.0514073221709825,
            1.1850650529965288,
            2.90273038098662,
            -8.60248983464131,
            -7.2459180333578415,
            -2.1687752507529496,
            -3.2414466862221536,
            -3.014958478220683,
            -0.052981453033574405,
            5.0150693630073135,
            -6.753773608817852,
            -7.301286142886555,
            5.186789307006469,
            1.7345571470367769,
            -3.641469265177681,
            1.3445803171511865,
            2.584937234964675,
            -5.431241869396301,
            -1.4563918560459883,
            -2.2962407343577205,
            -3.627228178809794,
            5.608422999843256,
            -5.387478836160889,
            3.534482307882071,
            -1.0742320246075356,
            -3.7620963414218593,
            -4.88929218312224,
            -3.2664416403690564,
            2.0275230185822264,
            -1.6701594395902226,
            4.113751545293722,
            2.603481018231161,
            -3.8161697192695763,
            0.16846576338889124,
            -1.604015318544493,
            4.1651049527663035,
            -4.076973932687196,
            -0.005305006688045243,
            -4.178330083376929,
            -8.637809580760248,
            -2.363033270136999,
            -5.2649046494579945,
            -7.345858631846364,
            -3.927950050248091,
            2.815339423328683,
            4.588625116782505,
            3.033035760790397,
            2.173692141477148,
            -1.4862342787950948
          ],
          "numRows": 10,
          "numCols": 9
        }
      },
      "ops": {
        "type": "org.ejml.simple.ops.SimpleOperations_DDRM",
        "data": {}
      }
    }
  ],
  "biases": [
    {
      "mat": {
        "type": "org.ejml.data.DMatrixRMaj",
        "data": {
          "data": [
            7.642896134296454,
            7.421430113822347,
            -14.530006929336214,
            -41.52625553253674,
            -9.880498489959624,
            60.69665990200978,
            -11.543471946295625,
            1.9503360726739618,
            -121.78407303418085
          ],
          "numRows": 9,
          "numCols": 1
        }
      },
      "ops": {
        "type": "org.ejml.simple.ops.SimpleOperations_DDRM",
        "data": {}
      }
    },
    {
      "mat": {
        "type": "org.ejml.data.DMatrixRMaj",
        "data": {
          "data": [
            -2.842455038269725,
            5.296595843988273,
            -0.01727216888426266,
            -2.5716295925445665,
            0.23570390086443405,
            2.0829340558557132,
            -6.41289946425011,
            4.013086099098243,
            3.190861893774075
          ],
          "numRows": 9,
          "numCols": 1
        }
      },
      "ops": {
        "type": "org.ejml.simple.ops.SimpleOperations_DDRM",
        "data": {}
      }
    },
    {
      "mat": {
        "type": "org.ejml.data.DMatrixRMaj",
        "data": {
          "data": [
            -1.2215617892589898,
            -5.9988204038699005,
            -5.048896013882948,
            -5.114136409304595,
            -0.7897700590283918,
            -3.957130407426212,
            -3.128144172275464,
            -4.0859671927843655,
            -0.24597104394143332,
            -2.392891506653613
          ],
          "numRows": 10,
          "numCols": 1
        }
      },
      "ops": {
        "type": "org.ejml.simple.ops.SimpleOperations_DDRM",
        "data": {}
      }
    }
  ],
  "learningRate": 0.01,
  "activationFunctionKey": "SIGMOID"
}