{
  "activationFunctionFactory": {
    "activationFunctionMap": {
      "TANH": {
        "type": "basicneuralnetwork.activationfunctions.TanhActivationFunction",
        "data": {}
      },
      "RELU": {
        "type": "basicneuralnetwork.activationfunctions.ReLuActivationFunction",
        "data": {}
      },
      "SIGMOID": {
        "type": "basicneuralnetwork.activationfunctions.SigmoidActivationFunction",
        "data": {}
      }
    }
  },
  "random": {
    "seed": 62568208348733,
    "nextNextGaussian": 0.0,
    "haveNextNextGaussian": false
  },
  "inputNodes": 3,
  "hiddenLayers": 2,
  "hiddenNodes": 9,
  "outputNodes": 10,
  "weights": [
    {
      "mat": {
        "type": "org.ejml.data.DMatrixRMaj",
        "data": {
          "data": [
            31.181735957030988,
            -1.8837137095948906,
            -3.0002782474948684,
            -8.234075582497097,
            33.27692761992638,
            -31.51490674795683,
            19.321744097131916,
            -48.7907254672562,
            28.316255794395737,
            -39.124825101567666,
            26.368121061239993,
            -25.093292935442587,
            -39.50195393315688,
            46.3213589402832,
            -4.848438440475216,
            -14.951042128520028,
            -23.89965197709132,
            39.12405524821447,
            -48.52506414972719,
            7.501368781076523,
            14.98459932565864,
            16.470328932366712,
            18.077070907206494,
            14.629827024262916,
            -1.2867932333657894,
            -12.125373103204849,
            -4.814755712788634
          ],
          "numRows": 9,
          "numCols": 3
        }
      },
      "ops": {
        "type": "org.ejml.simple.ops.SimpleOperations_DDRM",
        "data": {}
      }
    },
    {
      "mat": {
        "type": "org.ejml.data.DMatrixRMaj",
        "data": {
          "data": [
            8.064717056638333,
            0.23477490492208977,
            0.09394338523501905,
            3.0187257740294484,
            3.4139031727449147,
            -6.791044941083216E-5,
            5.543266079872344,
            0.5880947770571681,
            0.4954423413721831,
            -1.2312122006013024,
            3.560346168686356,
            13.916785436205355,
            -7.2599454477878576,
            -0.32725343700766935,
            -5.794615734826744,
            -5.613564452057004,
            -3.883919191365284,
            2.2115493820753143,
            0.1368166144789068,
            8.873790279652374,
            -4.083152928950645,
            -2.850980770474725,
            3.6271800461807153,
            -7.737954652461526,
            -5.365120336096848,
            5.8686496114028035,
            -0.03914512371708264,
            3.848809102688271,
            -6.985276871789796,
            -0.339770406159694,
            -3.424088237481625,
            -2.4590814624778687,
            8.313973103190829,
            -0.56017369512384,
            0.6304765227331515,
            -9.842650251752934,
            1.1727295763965024,
            -0.9448309306196581,
            4.704998502930144,
            -8.90148237883842,
            -13.457808919119586,
            5.685777650803762,
            -11.779728472823605,
            0.6586776729917068,
            -1.9432007098372102,
            -15.38513741698762,
            -1.6591697297623318,
            -1.3039174849488522,
            -3.9713143759744844,
            0.4524419613212856,
            1.678933751800389,
            3.263358638188414,
            0.2785222956364935,
            0.483553131185631,
            6.816271355450381,
            11.541838098888814,
            1.4475700836571754,
            -2.706760803496692,
            -13.06875555218433,
            -3.768252636817347,
            -4.775695448115539,
            -2.2168045203194264,
            0.8923518517729555,
            -5.221370041612885,
            -4.384403053187514,
            3.5648035935174494,
            2.4631463446563213,
            1.2620351335023987,
            5.009413552558174,
            2.9117706900246363,
            2.3134869156258393,
            -0.7811880516851837,
            -1.242020255015344,
            2.511852172176886,
            0.44057377835351363,
            -0.3180755687606905,
            -1.502885710960739,
            6.390573070366312,
            1.9358522853060645,
            -2.9861391619925315,
            -1.246019081303794
          ],
          "numRows": 9,
          "numCols": 9
        }
      },
      "ops": {
        "type": "org.ejml.simple.ops.SimpleOperations_DDRM",
        "data": {}
      }
    },
    {
      "mat": {
        "type": "org.ejml.data.DMatrixRMaj",
        "data": {
          "data": [
            0.23155003400704963,
            0.3011657898566623,
            -0.18156058215656143,
            -1.8261815904381353,
            2.081286628731103,
            -0.0658164466919719,
            1.7612818727565216,
            0.274169335763755,
            -8.320347244304934,
            -3.1059251935921393,
            -0.6325931542659506,
            3.999454702867693,
            2.0619592045784034,
            7.174195542662394,
            -3.1778015826718504,
            0.26703200105559416,
            -5.330855798418082,
            -3.2486746899907417,
            1.669971786156847,
            -0.7262486607083383,
            2.2643697043180637,
            -2.525392614399294,
            -5.511667874135753,
            0.019892636787832027,
            1.1075394989323293,
            -6.071356301997601,
            -0.8629857480766197,
            -0.630917477669696,
            -5.2663651593419125,
            4.037249015239627,
            -3.5908156496674786,
            -1.3138182980691226,
            -0.5596056396240499,
            -4.407388069989468,
            2.0433137860458124,
            -0.21763649023582082,
            1.4863706193464896,
            -5.2847703418109395,
            -5.707652152753329,
            4.7529601218112365,
            -2.6320018239089804,
            1.7943020560307374,
            -3.820947022476255,
            -0.2506342590668656,
            -0.35402240695904724,
            -4.670077797269221,
            3.139404357850642,
            -2.156899303523745,
            -0.35421122339237787,
            4.201497660373461,
            1.445729825049986,
            -4.377134373230194,
            0.14085823389677876,
            -0.4302516333210777,
            -1.5311731826548116,
            -0.4678013134770193,
            -8.920958660720016,
            2.889801333083632,
            1.464356968572273,
            -4.670431278763521,
            4.7016873586628325,
            0.13246540450401917,
            1.4507558978539896,
            -8.585543703920345,
            2.490338437764087,
            3.5647997243530507,
            -1.383306973810389,
            -1.5727966460972929,
            0.5943224436553554,
            4.5407345566591255,
            2.335856263681594,
            2.772544789325341,
            -3.1183447807400437,
            4.319286408191448,
            2.74202283815799,
            5.739587972603241,
            -5.202704642039133,
            -4.55819444936975,
            -4.175516016179965,
            -1.4415533898532946,
            -3.3564495632921014,
            -1.8678996211117223,
            4.839649887713694,
            -5.385889098115078,
            -4.921727997345123,
            -3.774255200239739,
            -1.0972788154446962,
            -3.4070019264492326,
            1.2903689607590056,
            0.9072525694472761
          ],
          "numRows": 10,
          "numCols": 9
        }
      },
      "ops": {
        "type": "org.ejml.simple.ops.SimpleOperations_DDRM",
        "data": {}
      }
    }
  ],
  "biases": [
    {
      "mat": {
        "type": "org.ejml.data.DMatrixRMaj",
        "data": {
          "data": [
            -22.307661902108997,
            2.3599860697812067,
            4.336835536763044,
            5.277244759558034,
            2.9597347739589117,
            -2.642145607301365,
            4.253392914924958,
            -6.918591368369443,
            6.610269350857528
          ],
          "numRows": 9,
          "numCols": 1
        }
      },
      "ops": {
        "type": "org.ejml.simple.ops.SimpleOperations_DDRM",
        "data": {}
      }
    },
    {
      "mat": {
        "type": "org.ejml.data.DMatrixRMaj",
        "data": {
          "data": [
            -0.48743686794947905,
            -2.7915401400334967,
            -2.386543567068506,
            4.930814936138228,
            2.22678681587139,
            -0.33156384869676414,
            2.132675380820953,
            2.370499274895975,
            3.176416382994238
          ],
          "numRows": 9,
          "numCols": 1
        }
      },
      "ops": {
        "type": "org.ejml.simple.ops.SimpleOperations_DDRM",
        "data": {}
      }
    },
    {
      "mat": {
        "type": "org.ejml.data.DMatrixRMaj",
        "data": {
          "data": [
            -1.2755903126984534,
            -3.402385781812408,
            -0.8200641382594511,
            -1.4943986069362871,
            -1.0861442565641015,
            -1.9839303930106262,
            -4.216110461044484,
            -3.8168278070758803,
            -3.1516839811667836,
            -1.2450580706778758
          ],
          "numRows": 10,
          "numCols": 1
        }
      },
      "ops": {
        "type": "org.ejml.simple.ops.SimpleOperations_DDRM",
        "data": {}
      }
    }
  ],
  "learningRate": 0.01,
  "activationFunctionKey": "SIGMOID"
}