{
  "activationFunctionFactory": {
    "activationFunctionMap": {
      "TANH": {
        "type": "basicneuralnetwork.activationfunctions.TanhActivationFunction",
        "data": {}
      },
      "RELU": {
        "type": "basicneuralnetwork.activationfunctions.ReLuActivationFunction",
        "data": {}
      },
      "SIGMOID": {
        "type": "basicneuralnetwork.activationfunctions.SigmoidActivationFunction",
        "data": {}
      }
    }
  },
  "random": {
    "seed": 133736406701658,
    "nextNextGaussian": 0.0,
    "haveNextNextGaussian": false
  },
  "inputNodes": 3,
  "hiddenLayers": 2,
  "hiddenNodes": 9,
  "outputNodes": 10,
  "weights": [
    {
      "mat": {
        "type": "org.ejml.data.DMatrixRMaj",
        "data": {
          "data": [
            -4.2903046886411245,
            28.25067739411009,
            9.278718721862166,
            83.25626788321549,
            -90.46734559148467,
            4.828779221165127,
            -56.915547910188856,
            -8.348112805269531,
            30.73610092148804,
            -49.26992966334549,
            20.55885428340554,
            -26.84972640982923,
            2.289294051050799,
            97.90895094344903,
            -119.43720794700583,
            14.704457263180041,
            27.003557534612327,
            -36.64985538238507,
            -69.78086918334996,
            38.134054375346516,
            -6.258974873351244,
            -45.40849715979384,
            6.829877850268526,
            9.72679333795423,
            -101.12034175308692,
            25.49017365231508,
            37.4572067543686
          ],
          "numRows": 9,
          "numCols": 3
        }
      },
      "ops": {
        "type": "org.ejml.simple.ops.SimpleOperations_DDRM",
        "data": {}
      }
    },
    {
      "mat": {
        "type": "org.ejml.data.DMatrixRMaj",
        "data": {
          "data": [
            -0.46259533141935666,
            5.829819460312572,
            -1.1178910488231226,
            2.3135128860350616,
            7.3000088668200185,
            8.269216128949834,
            0.520361051552011,
            -13.37133388294683,
            -10.450974096780026,
            -6.242093615299093,
            14.477556230363682,
            2.965074809116131,
            -12.61520879356574,
            -3.040515551567043,
            -7.34811775241667,
            -0.29389448667892953,
            1.8881116846659292,
            -1.3485555172987436,
            -5.870282395066403,
            -9.08993782278512,
            -8.960371322885305,
            -3.8805728115106835,
            -4.637695706480767,
            3.506809288497978,
            -7.487973152646272,
            -0.15659161835113594,
            -2.599520150251135,
            1.0419894841384458,
            -0.9795205100444043,
            3.256127783641827,
            1.3885792564191461,
            -0.45830628631681497,
            0.40891570299228913,
            1.0036687372453024,
            -0.08777443637837698,
            1.246351917156052,
            -2.9264114372504406,
            1.409372913005722,
            10.19055980434138,
            2.6055357240218493,
            0.8189836959440325,
            0.27535716130495136,
            21.331796214292254,
            1.8111715689160612,
            22.589535857507485,
            3.0660418712140163,
            -20.625423205753115,
            0.6083855381801111,
            -21.62213889266634,
            -21.29995869296808,
            -3.539330379828707,
            -0.8772357759089635,
            0.47614717671889706,
            -0.6367602623837997,
            -6.344183072710975,
            26.70734395207132,
            0.4621650427054265,
            -0.015185764601119355,
            1.3584562764053425,
            -2.8518884655120127,
            -7.796744129058097,
            -2.1200743545545113,
            -1.7268279988014308,
            0.8840812755100981,
            -20.292836866986768,
            -1.3911657376014503,
            21.5896103981555,
            20.717910492759867,
            5.403524037038722,
            2.127629840832105,
            1.3573531192954544,
            3.238771985821053,
            -0.3722218350985401,
            0.889783463061783,
            -12.826055989347456,
            -1.4234259585130813,
            0.5063564634761184,
            0.8996812293654805,
            6.64077449048841,
            -2.193904784071212,
            15.306065166036177
          ],
          "numRows": 9,
          "numCols": 9
        }
      },
      "ops": {
        "type": "org.ejml.simple.ops.SimpleOperations_DDRM",
        "data": {}
      }
    },
    {
      "mat": {
        "type": "org.ejml.data.DMatrixRMaj",
        "data": {
          "data": [
            2.596745263327099,
            2.679849618960877,
            8.367274605740478,
            -4.943733263963894,
            1.5323248093969517,
            -5.685025004611207,
            -1.2578423651787638,
            -4.8704517503899,
            5.711036634036242,
            0.8715322027318123,
            6.120900370628002,
            0.6538608125025119,
            -4.574400878568695,
            -9.470630759981043,
            -7.082129943773669,
            -1.2861740161972441,
            3.5453740653075365,
            5.879360097047341,
            2.080035482914295,
            -2.1674607551143183,
            1.698426622539938,
            -1.949036174745758,
            -12.153932679947765,
            -7.176901585099283,
            -1.9130844643416887,
            5.95001338139318,
            2.5819198054916273,
            1.3403037608244663,
            -6.288177002553011,
            -0.46672365387736825,
            -0.4534689211484317,
            5.666195519826399,
            -5.895139638984361,
            -8.391517281874334,
            4.1146447924787495,
            -0.064547146129,
            -5.544628530885323,
            3.273603005695295,
            -1.2477654525884,
            -3.1759052879760827,
            0.08486238571596698,
            8.797645191619823,
            -4.587460562464626,
            -5.318212984209822,
            4.348837900877935,
            -0.4392725551841129,
            -1.588020669629497,
            3.227195701447752,
            -4.7055897371915565,
            1.3936224494030822,
            4.803996435239265,
            5.675160525127318,
            -5.643568459390164,
            -8.15702548623026,
            5.404020197534311,
            1.9365819469407537,
            -4.987125591633952,
            -6.758740743047377,
            -3.7282351751102167,
            4.8738632208539086,
            -1.8266670024448608,
            -7.973665014758197,
            6.033351866420814,
            2.8828303164241458,
            4.477151193362897,
            1.1568362817605153,
            -2.196028936346992,
            -3.8340155567076284,
            -7.358171269358779,
            3.335444712337425,
            3.8097188529338735,
            -10.386986416693084,
            5.324031720250407,
            -5.7233498519747945,
            5.171057693575605,
            -6.061168415414421,
            -12.560256711332862,
            7.128107377783776,
            -2.8910872667968457,
            2.249408088452666,
            -1.1799412762289103,
            -10.746867894373235,
            2.508602922463445,
            4.6741583768494,
            -2.230911766721911,
            0.37979055898405073,
            -5.422738330189072,
            3.974687753936256,
            4.579432442333827,
            -1.0663079467758365
          ],
          "numRows": 10,
          "numCols": 9
        }
      },
      "ops": {
        "type": "org.ejml.simple.ops.SimpleOperations_DDRM",
        "data": {}
      }
    }
  ],
  "biases": [
    {
      "mat": {
        "type": "org.ejml.data.DMatrixRMaj",
        "data": {
          "data": [
            -6.145815779014295,
            -9.048756249950648,
            7.2583098826400105,
            -19.612254933232983,
            12.366501135847376,
            -2.663532948912397,
            -0.3413049686657375,
            24.0183827601681,
            7.476839969027232
          ],
          "numRows": 9,
          "numCols": 1
        }
      },
      "ops": {
        "type": "org.ejml.simple.ops.SimpleOperations_DDRM",
        "data": {}
      }
    },
    {
      "mat": {
        "type": "org.ejml.data.DMatrixRMaj",
        "data": {
          "data": [
            8.928151494761336,
            2.4207736742247463,
            3.9883275790899244,
            0.979322031337497,
            -0.4426016465634155,
            21.133133022749696,
            7.654339490797638,
            -5.901025182807554,
            -0.2927320013570035
          ],
          "numRows": 9,
          "numCols": 1
        }
      },
      "ops": {
        "type": "org.ejml.simple.ops.SimpleOperations_DDRM",
        "data": {}
      }
    },
    {
      "mat": {
        "type": "org.ejml.data.DMatrixRMaj",
        "data": {
          "data": [
            -5.079102881979292,
            -4.166362093026331,
            -2.5024463767875393,
            -2.2697223550600962,
            -5.150417563217808,
            -3.065598355907735,
            -5.31276418026623,
            -0.5585528940592596,
            -6.345043108329341,
            -2.0005349670533485
          ],
          "numRows": 10,
          "numCols": 1
        }
      },
      "ops": {
        "type": "org.ejml.simple.ops.SimpleOperations_DDRM",
        "data": {}
      }
    }
  ],
  "learningRate": 0.01,
  "activationFunctionKey": "SIGMOID"
}