{
  "activationFunctionFactory": {
    "activationFunctionMap": {
      "TANH": {
        "type": "basicneuralnetwork.activationfunctions.TanhActivationFunction",
        "data": {}
      },
      "RELU": {
        "type": "basicneuralnetwork.activationfunctions.ReLuActivationFunction",
        "data": {}
      },
      "SIGMOID": {
        "type": "basicneuralnetwork.activationfunctions.SigmoidActivationFunction",
        "data": {}
      }
    }
  },
  "random": {
    "seed": 148674610933889,
    "nextNextGaussian": 0.0,
    "haveNextNextGaussian": false
  },
  "inputNodes": 3,
  "hiddenLayers": 2,
  "hiddenNodes": 9,
  "outputNodes": 10,
  "weights": [
    {
      "mat": {
        "type": "org.ejml.data.DMatrixRMaj",
        "data": {
          "data": [
            -27.182375146365914,
            15.95953116725676,
            1.3700229474849885,
            7.093113532710636,
            27.594711551285148,
            -38.554880916715,
            -36.55248324782008,
            13.827751410451857,
            11.499322641067241,
            16.0905356520701,
            -24.02309600195243,
            9.948999091238246,
            16.21158781365302,
            -2.0787654412358267,
            29.642532488150707,
            38.94471214989693,
            -37.92676820914535,
            -10.665995906598038,
            -31.971742246515323,
            -5.260200699057076,
            28.31713388399493,
            15.426905541454849,
            62.7141674324628,
            -27.321229316926264,
            17.8514625702536,
            9.940310654313791,
            6.00538654710051
          ],
          "numRows": 9,
          "numCols": 3
        }
      },
      "ops": {
        "type": "org.ejml.simple.ops.SimpleOperations_DDRM",
        "data": {}
      }
    },
    {
      "mat": {
        "type": "org.ejml.data.DMatrixRMaj",
        "data": {
          "data": [
            -2.2910726923166576,
            -6.175770169348782,
            0.32575878103571815,
            3.625946501177683,
            2.9176891870888015,
            7.229530535273715,
            4.7677843051791235,
            -7.780827320713339,
            0.734880118748082,
            -8.484390802245255,
            8.8432978698609,
            2.056941852328292,
            -8.82950708547858,
            2.2518220664842756,
            7.932541501069335,
            -4.684147933281073,
            -1.5198797786840528,
            2.5224102297805047,
            -0.07729854579791726,
            -2.656726818823986,
            2.0522813959502835,
            4.274394308442326,
            2.9335019391593593,
            -4.705796847624311,
            -5.97077603153372,
            -0.20798412654710433,
            4.576298608249451,
            5.465345154289436,
            -3.105358484985373,
            0.6414809179156648,
            -3.7628441735016875,
            2.5586610689908604,
            -0.18763257949007123,
            -0.7044280239558846,
            0.2614525903348386,
            -6.08591228678681,
            -3.972748946842346,
            8.550587353689226,
            0.5057396523906131,
            5.0052274709213025,
            -13.118338819269935,
            2.696075796316751,
            2.628503204375891,
            5.037418233356403,
            -1.5469379692751533,
            -7.976986417631251,
            -3.7253127403134374,
            -9.680549328439536,
            10.510709861155936,
            4.162103189074301,
            -7.932602821354755,
            -0.048464743832916504,
            -3.732269150951696,
            3.4175785939009087,
            -1.0977524714433864,
            -4.080114693207708,
            2.5353265461909134,
            -2.5714197485989034,
            3.2552754965452326,
            -4.130257103027213,
            4.348486866781532,
            2.4707764499341978,
            2.5213125799047504,
            4.558566711137946,
            -1.2902245587265446,
            6.084318660417981,
            3.4300525982025074,
            9.449696355762907,
            -0.5482840469107796,
            3.0197614223486324,
            -10.480912371915476,
            -2.529622446960566,
            -3.535176207780427,
            4.467514409958736,
            -11.729832829145193,
            5.718502642623031,
            0.0092999532559595,
            1.943119548204259,
            -0.7691507175530661,
            -2.506123255682085,
            1.182570126894274
          ],
          "numRows": 9,
          "numCols": 9
        }
      },
      "ops": {
        "type": "org.ejml.simple.ops.SimpleOperations_DDRM",
        "data": {}
      }
    },
    {
      "mat": {
        "type": "org.ejml.data.DMatrixRMaj",
        "data": {
          "data": [
            0.2707619827630682,
            0.22516564029243138,
            -2.6371350627127,
            -0.8756897450514641,
            2.2602333523514466,
            2.6301936148529594,
            -6.306525113229125,
            1.3894560393170443,
            0.1729006260218382,
            0.8519272709259275,
            0.013016580429115443,
            -1.1519423308910208,
            -0.9680950656233317,
            3.939927264070807,
            3.011746053028931,
            -1.630351429046996,
            -6.106667813073762,
            -0.2903020760535848,
            -2.285139726370724,
            2.282917426345307,
            -0.17791160598586497,
            0.012886874264303374,
            -3.1488488534169154,
            -3.748799068021672,
            -0.0648099523797857,
            -5.484724463082103,
            3.363537656834058,
            -5.764129701425187,
            3.9679222311850304,
            -1.4076777735647956,
            -0.20367429462230047,
            -2.579267863456875,
            -0.9959924376321707,
            -2.1998458061703507,
            3.4222339778566666,
            -4.285876071363024,
            2.0532846988551126,
            -5.531670816484488,
            1.6983213395453873,
            -1.5319124172548624,
            -1.356837282343761,
            -1.5350419286943173,
            0.7434265509652471,
            0.12660197588169356,
            -5.524394592174495,
            3.957399509421727,
            -5.081095765342985,
            -3.516588786126483,
            2.6926971513745266,
            -1.4009518698605752,
            1.7443138290311777,
            -2.98273481475211,
            0.7018151929969952,
            4.1789115612346155,
            4.061353650685203,
            4.029466584924908,
            -2.9118897734630957,
            -4.850143946326806,
            -8.365109810108649,
            1.1882930195485317,
            -0.5556012761683056,
            0.7026492250402806,
            0.5996130527962547,
            -1.5300208082937468,
            0.3699328231400819,
            0.3687789579935191,
            -0.40171289413674394,
            3.099092963742571,
            -5.213262302554648,
            -4.363191140180836,
            0.4138015013732586,
            2.2520369609657744,
            -6.955548699545495,
            -4.372868308195015,
            -0.5880318921248329,
            -1.5961655025550006,
            -2.8167146660409363,
            3.6444495562422192,
            -0.25600482571991956,
            -2.179444069789689,
            4.553274298337626,
            2.5051933898236576,
            1.5461994379547257,
            -5.20715458727038,
            -0.7717391163614649,
            2.9723828873063214,
            -1.3596858799007,
            0.05988594281167462,
            0.1920779782645413,
            -3.9487544808936135
          ],
          "numRows": 10,
          "numCols": 9
        }
      },
      "ops": {
        "type": "org.ejml.simple.ops.SimpleOperations_DDRM",
        "data": {}
      }
    }
  ],
  "biases": [
    {
      "mat": {
        "type": "org.ejml.data.DMatrixRMaj",
        "data": {
          "data": [
            11.74345878971187,
            5.636560241912222,
            0.5504077026226223,
            0.528577532034697,
            6.305971895998584,
            4.266334900530831,
            3.9613498677528316,
            9.409152207204631,
            -21.556787250278127
          ],
          "numRows": 9,
          "numCols": 1
        }
      },
      "ops": {
        "type": "org.ejml.simple.ops.SimpleOperations_DDRM",
        "data": {}
      }
    },
    {
      "mat": {
        "type": "org.ejml.data.DMatrixRMaj",
        "data": {
          "data": [
            2.433933214135288,
            2.1985895403323843,
            4.374457002718595,
            2.2762759737942444,
            -3.5448662895499923,
            1.4584917462493374,
            3.743714957170599,
            0.6688271400611766,
            -0.4956892072278817
          ],
          "numRows": 9,
          "numCols": 1
        }
      },
      "ops": {
        "type": "org.ejml.simple.ops.SimpleOperations_DDRM",
        "data": {}
      }
    },
    {
      "mat": {
        "type": "org.ejml.data.DMatrixRMaj",
        "data": {
          "data": [
            -1.5525628803867053,
            -1.4661243984062564,
            -0.6125054693039861,
            -0.2229004202943531,
            -0.15099377671600128,
            -3.4441912698758164,
            -2.669829916478246,
            -1.6664852308152585,
            -0.9711105997424376,
            -1.5127719784402636
          ],
          "numRows": 10,
          "numCols": 1
        }
      },
      "ops": {
        "type": "org.ejml.simple.ops.SimpleOperations_DDRM",
        "data": {}
      }
    }
  ],
  "activations": [
    {
      "mat": {
        "type": "org.ejml.data.DMatrixRMaj",
        "data": {
          "data": [
            255.0,
            0.7839216,
            225.0
          ],
          "numRows": 3,
          "numCols": 1
        }
      },
      "ops": {
        "type": "org.ejml.simple.ops.SimpleOperations_DDRM",
        "data": {}
      }
    },
    {
      "mat": {
        "type": "org.ejml.data.DMatrixRMaj",
        "data": {
          "data": [
            0.0,
            0.0,
            0.0,
            1.0,
            1.0,
            1.0,
            0.0,
            0.0,
            1.0
          ],
          "numRows": 9,
          "numCols": 1
        }
      },
      "ops": {
        "type": "org.ejml.simple.ops.SimpleOperations_DDRM",
        "data": {}
      }
    },
    {
      "mat": {
        "type": "org.ejml.data.DMatrixRMaj",
        "data": {
          "data": [
            0.9999999561275642,
            0.997707589269772,
            0.9999893809991659,
            0.0054783822001288245,
            2.729336011492117E-5,
            0.9999909820145109,
            0.9436740879550471,
            0.9999716447385464,
            0.9997654959255848
          ],
          "numRows": 9,
          "numCols": 1
        }
      },
      "ops": {
        "type": "org.ejml.simple.ops.SimpleOperations_DDRM",
        "data": {}
      }
    },
    {
      "mat": {
        "type": "org.ejml.data.DMatrixRMaj",
        "data": {
          "data": [
            0.004244609157639425,
            0.0012518668086740489,
            0.0011935476874154714,
            6.283982817478229E-4,
            2.8669592014771167E-4,
            0.01408052047681623,
            0.9883320431154916,
            1.087761810958105E-4,
            8.156624267126473E-4,
            4.3702344798935853E-4
          ],
          "numRows": 10,
          "numCols": 1
        }
      },
      "ops": {
        "type": "org.ejml.simple.ops.SimpleOperations_DDRM",
        "data": {}
      }
    }
  ],
  "learningRate": 0.01,
  "activationFunctionKey": "SIGMOID"
}