{
  "activationFunctionFactory": {
    "activationFunctionMap": {
      "TANH": {
        "type": "basicneuralnetwork.activationfunctions.TanhActivationFunction",
        "data": {}
      },
      "RELU": {
        "type": "basicneuralnetwork.activationfunctions.ReLuActivationFunction",
        "data": {}
      },
      "SIGMOID": {
        "type": "basicneuralnetwork.activationfunctions.SigmoidActivationFunction",
        "data": {}
      }
    }
  },
  "random": {
    "seed": 127702434383433,
    "nextNextGaussian": 0.0,
    "haveNextNextGaussian": false
  },
  "inputNodes": 3,
  "hiddenLayers": 2,
  "hiddenNodes": 9,
  "outputNodes": 10,
  "weights": [
    {
      "mat": {
        "type": "org.ejml.data.DMatrixRMaj",
        "data": {
          "data": [
            16.635761841630213,
            7.311937651302145,
            1.7020927596077815,
            1.9337079331641962,
            1.1303640932222454,
            2.0818552597234654,
            35.40543103384448,
            -13.420929360563118,
            -7.080671603677376,
            -38.64631643957048,
            60.341878433506345,
            -14.392797206101108,
            27.242803690386705,
            -11.634986567353216,
            -1.9353828735454655,
            36.9656470984302,
            -13.024736443761068,
            -28.54787120347723,
            1.5808772959823774,
            14.565195354754968,
            -16.14669116885381,
            15.733938986901105,
            13.720045470916611,
            -30.57479213079927,
            34.30539579708833,
            9.570939598112153,
            -10.9199982795924
          ],
          "numRows": 9,
          "numCols": 3
        }
      },
      "ops": {
        "type": "org.ejml.simple.ops.SimpleOperations_DDRM",
        "data": {}
      }
    },
    {
      "mat": {
        "type": "org.ejml.data.DMatrixRMaj",
        "data": {
          "data": [
            -6.042931387282186,
            3.3630616184355246,
            4.621376797352913,
            -5.77858714963927,
            -7.645932142315931,
            -9.969155704596233,
            4.38477623383962,
            -2.2200851239540094,
            7.540411777120181,
            -2.6478864006621423,
            5.317406407150651,
            -0.4061091215397746,
            -7.943092539884357,
            1.2560070571885438,
            -3.301375305820662,
            -11.803923014462828,
            3.3121218833659434,
            0.48791120597567267,
            1.01177532696855,
            1.3379116682798187,
            1.5388552796138293,
            -2.411908603543927,
            0.2876369817867491,
            2.224011340644172,
            0.4153195952152479,
            1.7435960166224713,
            1.015563637185852,
            4.398406053226044,
            0.7858791470113707,
            0.9748936498770387,
            3.342782303426655,
            5.139050928305045,
            -7.255524234610815,
            3.6566253683833834,
            1.5872761524625498,
            3.196753635142756,
            1.7364791675532245,
            1.6774305995130314,
            -3.2439404979456574,
            9.842237578418203,
            0.5123453925968738,
            0.7512692815075451,
            2.0940120174218726,
            -11.881060268301617,
            -0.6774174731148698,
            -3.875298514351607,
            -2.2393271148383542,
            -0.6673239040011715,
            1.954309746547196,
            -5.409845871759797,
            2.8932901023979514,
            22.550841959579202,
            10.860695308050788,
            0.396041744941909,
            0.4772607845415123,
            2.7655400615687373,
            -4.027454398554387,
            2.1444940200621643,
            -8.788389650879374,
            -5.417226404310534,
            -0.08897978703057813,
            3.8067961488783464,
            -2.6521177284950332,
            3.240588275040444,
            1.41670352043256,
            -4.892935199472425,
            10.765921504628661,
            -6.9093353453145125,
            1.1025733492735794,
            8.24421369225909,
            4.19559328246168,
            -0.2836684237500316,
            1.0628122892155998,
            2.5527856179509443,
            0.5856659443378607,
            1.2183150519867034,
            1.116860665928816,
            0.7981752014757554,
            1.236931885835078,
            0.537378341721652,
            1.5799349037122457
          ],
          "numRows": 9,
          "numCols": 9
        }
      },
      "ops": {
        "type": "org.ejml.simple.ops.SimpleOperations_DDRM",
        "data": {}
      }
    },
    {
      "mat": {
        "type": "org.ejml.data.DMatrixRMaj",
        "data": {
          "data": [
            -2.4118540873767325,
            1.8589479173739991,
            -1.6002081990384303,
            -0.5725851826945341,
            -4.288115887024639,
            3.347431686960874,
            -1.2081908217673258,
            -4.349388160913427,
            -0.9365315913984752,
            -3.575733774812274,
            -1.306949160217531,
            -0.8268602443571609,
            0.2009041192918061,
            -5.528118751112234,
            1.9289692408895618,
            -1.5585199863735637,
            2.930578226843841,
            -0.05260450844473872,
            -3.235563461326477,
            -6.27832892300071,
            -0.9827265470710403,
            -1.4525479209917576,
            2.273456543916032,
            4.997566459161596,
            -3.422553554570963,
            0.9415271980107817,
            -1.9536461367448787,
            3.1407331391370685,
            -5.296154549171917,
            -2.9735187297525525,
            -0.7048075697940832,
            2.4294308611428126,
            4.875783053154634,
            5.959196929018907,
            0.3182434993757598,
            -2.1790678248157955,
            2.8046274038073444,
            3.874026218317159,
            -3.2263120432060757,
            -1.8191520927976728,
            -0.1464750615711393,
            -8.400016240732045,
            4.5809225413936625,
            0.6915636515704803,
            -2.0614172755301783,
            6.420190352826789,
            0.42961346757262536,
            -1.03529167379947,
            -3.1918363515534156,
            -0.015004737256966667,
            -6.244218840621429,
            -3.040793186330366,
            -2.568694088683762,
            -0.21413634339286425,
            -5.825887223604215,
            4.592591663493507,
            -0.12713015263988237,
            0.48037526066137304,
            1.8078096760474982,
            -3.5039487940746397,
            -3.0367217190691203,
            -5.895501131612946,
            -1.2956575000536537,
            3.759514848683614,
            1.899605223836967,
            -1.0320181024364967,
            -2.696790835414982,
            -4.779662049257752,
            1.9047091989244278,
            -1.8204117815527987,
            1.7595079453266593,
            -1.0934352043746813,
            -3.0499861835562725,
            -3.4768194541993425,
            -1.6830969816453503,
            0.08628899392879041,
            1.9121637401527025,
            -7.905616992904631,
            -4.794272732486562,
            7.187463867795904,
            -1.4242890131820871,
            -3.0903346841686785,
            2.7401654180168964,
            -0.916234186193219,
            -5.529007263352229,
            0.8159860384300583,
            2.0387534674714445,
            2.042220988623481,
            1.62119793051884,
            -2.3134980702622947
          ],
          "numRows": 10,
          "numCols": 9
        }
      },
      "ops": {
        "type": "org.ejml.simple.ops.SimpleOperations_DDRM",
        "data": {}
      }
    }
  ],
  "biases": [
    {
      "mat": {
        "type": "org.ejml.data.DMatrixRMaj",
        "data": {
          "data": [
            -16.615675745788334,
            7.323965782030695,
            -3.4491791573995334,
            -3.4251551535239355,
            -11.243912648253218,
            4.602153471709306,
            -2.2114936625367143,
            -2.7279273378532776,
            -4.3725977173496355
          ],
          "numRows": 9,
          "numCols": 1
        }
      },
      "ops": {
        "type": "org.ejml.simple.ops.SimpleOperations_DDRM",
        "data": {}
      }
    },
    {
      "mat": {
        "type": "org.ejml.data.DMatrixRMaj",
        "data": {
          "data": [
            3.37987066390085,
            5.099871610185335,
            1.3832023114011993,
            2.1233519899986315,
            2.8970296893644747,
            -1.6787996138275019,
            3.263004310309721,
            0.9864796861311612,
            2.320657516824371
          ],
          "numRows": 9,
          "numCols": 1
        }
      },
      "ops": {
        "type": "org.ejml.simple.ops.SimpleOperations_DDRM",
        "data": {}
      }
    },
    {
      "mat": {
        "type": "org.ejml.data.DMatrixRMaj",
        "data": {
          "data": [
            0.19753396634636913,
            -2.2829715618795228,
            -2.0957632051297916,
            -4.105036025820829,
            -1.9106466006328982,
            -0.443459075542546,
            -1.261413339466282,
            -1.5505323780392775,
            -0.9722752718931127,
            -0.9155481616226739
          ],
          "numRows": 10,
          "numCols": 1
        }
      },
      "ops": {
        "type": "org.ejml.simple.ops.SimpleOperations_DDRM",
        "data": {}
      }
    }
  ],
  "learningRate": 0.01,
  "activationFunctionKey": "SIGMOID"
}