{
  "activationFunctionFactory": {
    "activationFunctionMap": {
      "TANH": {
        "type": "basicneuralnetwork.activationfunctions.TanhActivationFunction",
        "data": {}
      },
      "RELU": {
        "type": "basicneuralnetwork.activationfunctions.ReLuActivationFunction",
        "data": {}
      },
      "SIGMOID": {
        "type": "basicneuralnetwork.activationfunctions.SigmoidActivationFunction",
        "data": {}
      }
    }
  },
  "random": {
    "seed": 207960296218241,
    "nextNextGaussian": 0.0,
    "haveNextNextGaussian": false
  },
  "inputNodes": 3,
  "hiddenLayers": 2,
  "hiddenNodes": 9,
  "outputNodes": 10,
  "weights": [
    {
      "mat": {
        "type": "org.ejml.data.DMatrixRMaj",
        "data": {
          "data": [
            3.2266874145719773,
            7.001760597247533,
            -1.3422295872467391,
            -25.098790790847147,
            20.694668625408273,
            0.2616987258034721,
            31.9569786550423,
            -9.082690428948563,
            12.464014515905028,
            5.033510415352843,
            17.4964937407788,
            32.41604594550476,
            19.32015050989038,
            22.366037940617428,
            17.6154007211608,
            6.802277362461964,
            -13.476921294605226,
            11.664210765719943,
            -10.267285352128598,
            -1.343885922526855,
            -6.275656411592176,
            -13.473573089490163,
            -3.128278056826207,
            10.66760182828006,
            44.751525098850806,
            17.966579020539964,
            -27.653805907365083
          ],
          "numRows": 9,
          "numCols": 3
        }
      },
      "ops": {
        "type": "org.ejml.simple.ops.SimpleOperations_DDRM",
        "data": {}
      }
    },
    {
      "mat": {
        "type": "org.ejml.data.DMatrixRMaj",
        "data": {
          "data": [
            1.8487623005147091,
            0.39783824788708666,
            0.0892157691274895,
            0.09321334549001742,
            1.374162101422257,
            1.5150786572711783,
            1.7666687669540622,
            0.09701168206543152,
            2.418921596604045,
            -0.2302593264865355,
            -23.26372813822408,
            2.4006526946135565,
            -2.958569120867918,
            2.067512075900522,
            1.8452069279975973,
            1.4892373016217413,
            -3.2002483288503676,
            19.278368215139007,
            2.803579478197101,
            0.8915849065915946,
            -0.1417771421923084,
            0.0968287250962922,
            2.7103284630312032,
            0.7312760091556907,
            -0.26913715558054063,
            0.9051864136400726,
            1.545212733833877,
            2.575526047449411,
            -2.663641156299368,
            -6.9535654001616125,
            -4.633948857142661,
            -2.3777498934053694,
            18.917644639100658,
            -1.5065364863905897,
            9.566318350055452,
            -10.6097892910125,
            -0.4653264791220331,
            -6.730942645495381,
            1.8435894441633756,
            4.52758504838163,
            5.738951262908105,
            0.1140307044964791,
            -2.2108180688818555,
            19.898248743647844,
            -11.268708922753992,
            -4.884465896628637,
            1.4945262887891715,
            4.720465892627068,
            1.5938519588724687,
            -0.17924087621462317,
            13.776467564632181,
            -2.1846450753578455,
            11.395574054010558,
            -7.721067000040696,
            0.48559052058100305,
            3.4028469177939993,
            2.306538031923014,
            7.181697107629998,
            4.84742722843631,
            -7.7467466319791916,
            -11.263976117510007,
            5.250292325234262,
            -3.072308234477147,
            -0.04176785404511235,
            12.476170178921349,
            -3.066396206497758,
            -0.18281398567858703,
            -5.861727618708244,
            11.304751175308606,
            5.165766319194645,
            11.914761323240489,
            -8.756699963601552,
            2.040437626926664,
            0.7146556080025898,
            -0.24504104447180233,
            0.9235887397254329,
            1.7249905507215928,
            0.8490914607492255,
            1.4626988062579953,
            1.1417084261614843,
            0.651217690491239
          ],
          "numRows": 9,
          "numCols": 9
        }
      },
      "ops": {
        "type": "org.ejml.simple.ops.SimpleOperations_DDRM",
        "data": {}
      }
    },
    {
      "mat": {
        "type": "org.ejml.data.DMatrixRMaj",
        "data": {
          "data": [
            -0.15763128486172184,
            3.1826960010868133,
            -0.6392934975729294,
            7.183719262412193,
            -5.77732503372192,
            -2.453496591722245,
            -4.827542044491999,
            -1.9786661965189807,
            -1.0850904067009801,
            -0.2366348523469414,
            0.6044161536321531,
            -0.8706532442547296,
            -3.6949926926217054,
            2.7030361194325327,
            -0.28234593194755114,
            -1.9710126446630492,
            -3.514768046185359,
            -0.22023905462084487,
            -1.5950305517972234,
            5.0661860903787295,
            -1.5498349547900072,
            -5.860558484308768,
            -5.579638489885711,
            -2.707577098570214,
            6.030875936556777,
            -3.8458465074575097,
            -1.6878025577050468,
            -0.40219768953430346,
            -7.208177111431423,
            0.32958937230868895,
            -4.142888056831649,
            -2.8610140157170436,
            -3.6060355553908905,
            3.7504352524330287,
            4.200380623046241,
            -0.5530739074453883,
            -1.9290932287841385,
            -6.578357565115951,
            -2.524109995923545,
            1.576143543087428,
            1.5643631010801065,
            5.875534269564985,
            1.6150014986804462,
            2.0876890920189584,
            -2.5150636930720744,
            -4.051508665329692,
            4.834697826701447,
            -3.967426044648221,
            0.8921292162326289,
            4.000377115392274,
            3.683836150980742,
            -2.7740212388162844,
            4.994550669561582,
            -3.0265582069602486,
            -2.2208419375321102,
            2.0808952770734197,
            -2.219497331990663,
            3.1399022282086495,
            2.632125048070517,
            5.530409980825964,
            1.174590364857908,
            -7.146239411514602,
            -3.0040209428069002,
            -0.7493986055806648,
            3.524840803028818,
            -0.9759473782832789,
            -3.998467255932841,
            1.0308816853631784,
            -2.616187898057121,
            -4.850932808835708,
            1.9067471359530637,
            -0.5344923134150347,
            -3.1833917128333344,
            2.626680438088731,
            -2.5620890808247263,
            -0.636598721423538,
            -8.079147943346081,
            6.622641374355776,
            2.321427006639791,
            3.4087066176815517,
            -2.0033093672967164,
            -0.05977742527785341,
            -5.407025925531864,
            -0.8795017612143504,
            2.104245877811848,
            2.8548652212342964,
            -4.415032946081701,
            -5.529686766384449,
            1.256190653624307,
            0.2670710470940979
          ],
          "numRows": 10,
          "numCols": 9
        }
      },
      "ops": {
        "type": "org.ejml.simple.ops.SimpleOperations_DDRM",
        "data": {}
      }
    }
  ],
  "biases": [
    {
      "mat": {
        "type": "org.ejml.data.DMatrixRMaj",
        "data": {
          "data": [
            8.619178905897826,
            6.028712828086048,
            -6.121537893215329,
            -4.010771206983334,
            5.777543778985576,
            -0.7170954090776046,
            11.780647000885795,
            1.7388338072407743,
            1.6420432220169832
          ],
          "numRows": 9,
          "numCols": 1
        }
      },
      "ops": {
        "type": "org.ejml.simple.ops.SimpleOperations_DDRM",
        "data": {}
      }
    },
    {
      "mat": {
        "type": "org.ejml.data.DMatrixRMaj",
        "data": {
          "data": [
            2.4155913693010427,
            0.9964656013678047,
            2.1737088770110593,
            5.264797364051288,
            1.7869830187302855,
            -5.031111741828604,
            -1.1850863545619654,
            -0.056546706195288204,
            2.565830746885276
          ],
          "numRows": 9,
          "numCols": 1
        }
      },
      "ops": {
        "type": "org.ejml.simple.ops.SimpleOperations_DDRM",
        "data": {}
      }
    },
    {
      "mat": {
        "type": "org.ejml.data.DMatrixRMaj",
        "data": {
          "data": [
            -1.8681675892037004,
            -0.10595759085058103,
            -1.4914692198765203,
            -1.213414596155441,
            -2.2514638171695824,
            -3.542213584625367,
            -2.223889056175147,
            -0.6162123323137476,
            -3.202315253819536,
            -0.8592050684663443
          ],
          "numRows": 10,
          "numCols": 1
        }
      },
      "ops": {
        "type": "org.ejml.simple.ops.SimpleOperations_DDRM",
        "data": {}
      }
    }
  ],
  "activations": [
    {
      "mat": {
        "type": "org.ejml.data.DMatrixRMaj",
        "data": {
          "data": [
            0.9988235,
            0.9988235,
            0.9988235
          ],
          "numRows": 3,
          "numCols": 1
        }
      },
      "ops": {
        "type": "org.ejml.simple.ops.SimpleOperations_DDRM",
        "data": {}
      }
    },
    {
      "mat": {
        "type": "org.ejml.data.DMatrixRMaj",
        "data": {
          "data": [
            0.9999999747626986,
            0.8688880724774098,
            0.9999999999997866,
            1.0,
            1.0,
            0.9861647152410948,
            0.0022712823429391783,
            0.014943333821391385,
            0.9999999999999998
          ],
          "numRows": 9,
          "numCols": 1
        }
      },
      "ops": {
        "type": "org.ejml.simple.ops.SimpleOperations_DDRM",
        "data": {}
      }
    },
    {
      "mat": {
        "type": "org.ejml.data.DMatrixRMaj",
        "data": {
          "data": [
            0.9999583064631473,
            0.9575411086846861,
            0.999977379748962,
            0.43691508797074574,
            0.03624329237500638,
            0.9720285454147034,
            0.9973587451431128,
            0.9854078085136382,
            0.9998926927642903
          ],
          "numRows": 9,
          "numCols": 1
        }
      },
      "ops": {
        "type": "org.ejml.simple.ops.SimpleOperations_DDRM",
        "data": {}
      }
    },
    {
      "mat": {
        "type": "org.ejml.data.DMatrixRMaj",
        "data": {
          "data": [
            9.842458482422023E-4,
            3.1117488643919624E-4,
            0.00954462530516347,
            0.0018689847764638808,
            0.004523729486735522,
            0.024431173077104282,
            0.0012260515583913966,
            0.0012140311379262062,
            0.9571050205323101,
            6.445053821737036E-7
          ],
          "numRows": 10,
          "numCols": 1
        }
      },
      "ops": {
        "type": "org.ejml.simple.ops.SimpleOperations_DDRM",
        "data": {}
      }
    }
  ],
  "learningRate": 0.01,
  "activationFunctionKey": "SIGMOID"
}