{
  "activationFunctionFactory": {
    "activationFunctionMap": {
      "TANH": {
        "type": "basicneuralnetwork.activationfunctions.TanhActivationFunction",
        "data": {}
      },
      "RELU": {
        "type": "basicneuralnetwork.activationfunctions.ReLuActivationFunction",
        "data": {}
      },
      "SIGMOID": {
        "type": "basicneuralnetwork.activationfunctions.SigmoidActivationFunction",
        "data": {}
      }
    }
  },
  "random": {
    "seed": 159896770755957,
    "nextNextGaussian": 0.0,
    "haveNextNextGaussian": false
  },
  "inputNodes": 3,
  "hiddenLayers": 2,
  "hiddenNodes": 9,
  "outputNodes": 10,
  "weights": [
    {
      "mat": {
        "type": "org.ejml.data.DMatrixRMaj",
        "data": {
          "data": [
            16.922993203113464,
            26.891595851918478,
            8.55188075005113,
            -5.8912751322548305,
            -13.636762624861626,
            14.202039701923521,
            -25.282255750396626,
            4.556089046699442,
            4.769529156168,
            -25.714809093753836,
            47.209191253007056,
            -11.859389755701319,
            9.920488839787529,
            14.540978343020099,
            10.731531727068962,
            -17.58980145303537,
            -15.160011338102185,
            17.67446723429919,
            5.028386175380592,
            -10.548999335907759,
            -12.886340031490517,
            -5.2957524031877545,
            29.051392648565848,
            -32.32920386449912,
            -31.511338705924487,
            13.604747607494888,
            9.699304408499406
          ],
          "numRows": 9,
          "numCols": 3
        }
      },
      "ops": {
        "type": "org.ejml.simple.ops.SimpleOperations_DDRM",
        "data": {}
      }
    },
    {
      "mat": {
        "type": "org.ejml.data.DMatrixRMaj",
        "data": {
          "data": [
            1.1239915231429063,
            1.4702632157755293,
            0.4209051028762951,
            -0.05307607881017562,
            2.1759385573796846,
            1.174160158021881,
            2.2237328656605175,
            1.70893048333519,
            1.0059356185687243,
            1.6401618351698724,
            3.2743425317195682,
            -5.306088998638698,
            -9.41454829923544,
            0.2929772257554137,
            2.52462710620668,
            1.4617408697026772,
            3.1221076483837655,
            -6.8773360983054985,
            1.7212458033066107,
            10.970589532293866,
            1.5694272069839734,
            4.016822977539333,
            -4.6974859341133275,
            -1.177861466009423,
            -5.493559346302521,
            -8.12364320640591,
            -2.2745087507401154,
            2.903299674056767,
            -1.4134880536780088,
            -6.8164908229160215,
            5.094116037931932,
            3.9270891679434734,
            -1.422133381241806,
            -1.3108376896155909,
            0.8831862651786776,
            2.1584487757687896,
            0.6739467471259832,
            1.1260242563185572,
            -5.588348357757544,
            -2.4705027993540987,
            -2.9587084073895316,
            -0.2888300948125922,
            -0.09848829561954563,
            6.222878153071441,
            -4.5395966582124165,
            1.7834308224455027,
            2.53805174371718,
            -2.98803814556967,
            -7.4209354526366775,
            4.365989774429347,
            1.532739559124188,
            -0.30387744008176404,
            -2.4596695076945627,
            -12.023679780138064,
            6.516816498681436,
            0.07189464139310546,
            1.4689067854791604,
            -1.0239859282392507,
            -3.3015778431576264,
            -0.3492753815572016,
            -3.755406016458021,
            6.092345911784849,
            7.98875808436776,
            -5.520762111681368,
            -8.257238509132495,
            3.245215626835302,
            5.500896984576654,
            0.8677360493900098,
            11.170222053927978,
            3.595250922264672,
            1.8675552499623194,
            -7.479963685460713,
            -0.5636699887195195,
            -0.3256981067835918,
            0.9152632776669395,
            -0.5833931896143877,
            0.5061612177557444,
            -0.03046122505484382,
            2.3482773509132313,
            3.0602568961953334,
            -0.1969048257883605
          ],
          "numRows": 9,
          "numCols": 9
        }
      },
      "ops": {
        "type": "org.ejml.simple.ops.SimpleOperations_DDRM",
        "data": {}
      }
    },
    {
      "mat": {
        "type": "org.ejml.data.DMatrixRMaj",
        "data": {
          "data": [
            -0.5748090117386788,
            -0.4938154991830452,
            -4.927642788323442,
            -1.2294160702237722,
            2.450206962302217,
            1.7041441895083074,
            -6.924137798970704,
            1.669682803767305,
            -0.48263978992781253,
            -3.062371017939376,
            2.5205328401555964,
            -7.813802394692784,
            3.4248306339018915,
            0.0373742371933155,
            2.4928967764541037,
            2.534835839776741,
            -4.559740477893321,
            -1.688996645194484,
            -2.5272829881519905,
            -3.8067474090723175,
            -2.449064315981547,
            1.8210540332844865,
            6.798959518649572,
            -2.3329191282231747,
            0.05093692242133733,
            1.7705413641339314,
            -2.1851567124557585,
            -0.5612205013878034,
            -1.4679198640726725,
            -4.671729523697532,
            2.4156355280870736,
            -5.637262574679524,
            -4.418446238833389,
            0.20129579198755757,
            1.7210487277636204,
            0.5239848411999836,
            -0.907478916291786,
            -2.247523602832959,
            5.240759111550399,
            -0.8369086462543234,
            -3.8268630584533656,
            -3.8436013545058887,
            1.0520333122733232,
            -3.5348300428385526,
            -1.15299519669638,
            -1.5460671803447925,
            0.13906070034639095,
            3.8335082737198336,
            -7.37280425903264,
            -1.053356466487323,
            2.8435435645658482,
            -0.6423848247961551,
            -1.5980591890588325,
            -1.349820625888962,
            -1.6475435556412517,
            3.947528035650458,
            5.257437231926184,
            1.7366093642990823,
            1.260105598724666,
            -0.8692720426353647,
            -5.4102354149543,
            -3.9663609324915674,
            -2.821326200071952,
            -3.008648980235059,
            1.6552826614964695,
            -1.2176195426846022,
            -3.0629729958146754,
            0.8072379354674157,
            1.9604863871409104,
            3.2715354406101893,
            4.94199792708175,
            -2.493398357073788,
            -2.89694484009577,
            -5.790887545201019,
            2.395594504578282,
            2.517802748203251,
            -0.7697489135976916,
            4.464532224211773,
            -3.548464626406154,
            4.506496459824629,
            -3.6075610302360017,
            0.07621230405200932,
            -0.3220277678657648,
            -3.23213223983816,
            -4.54707650189701,
            2.671402312625866,
            -5.305240527720738,
            0.11183726814922307,
            -3.892231812875029,
            0.8651931909552134
          ],
          "numRows": 10,
          "numCols": 9
        }
      },
      "ops": {
        "type": "org.ejml.simple.ops.SimpleOperations_DDRM",
        "data": {}
      }
    }
  ],
  "biases": [
    {
      "mat": {
        "type": "org.ejml.data.DMatrixRMaj",
        "data": {
          "data": [
            2.331323543917279,
            4.52771900225316,
            15.263635698936167,
            -4.621497200111945,
            -4.8158974662383836,
            17.3110452401625,
            3.886632523212886,
            4.515686714584286,
            2.7193075306997727
          ],
          "numRows": 9,
          "numCols": 1
        }
      },
      "ops": {
        "type": "org.ejml.simple.ops.SimpleOperations_DDRM",
        "data": {}
      }
    },
    {
      "mat": {
        "type": "org.ejml.data.DMatrixRMaj",
        "data": {
          "data": [
            2.2509498107896557,
            -0.9072032969022428,
            -2.21292363212712,
            0.23605863612857061,
            2.9384016914288518,
            3.4619349163025976,
            -4.65115752979829,
            -2.7870627612548353,
            0.8796583098983356
          ],
          "numRows": 9,
          "numCols": 1
        }
      },
      "ops": {
        "type": "org.ejml.simple.ops.SimpleOperations_DDRM",
        "data": {}
      }
    },
    {
      "mat": {
        "type": "org.ejml.data.DMatrixRMaj",
        "data": {
          "data": [
            0.2917176160586879,
            -2.4184782937982314,
            -2.4347109657684327,
            -0.4765456073828266,
            -0.670123646195334,
            -1.5579942403192477,
            -1.9671718552854667,
            -3.1107795020837186,
            -3.8370729537041113,
            0.758267318106832
          ],
          "numRows": 10,
          "numCols": 1
        }
      },
      "ops": {
        "type": "org.ejml.simple.ops.SimpleOperations_DDRM",
        "data": {}
      }
    }
  ],
  "learningRate": 0.01,
  "activationFunctionKey": "SIGMOID"
}