{
  "activationFunctionFactory": {
    "activationFunctionMap": {
      "TANH": {
        "type": "basicneuralnetwork.activationfunctions.TanhActivationFunction",
        "data": {}
      },
      "RELU": {
        "type": "basicneuralnetwork.activationfunctions.ReLuActivationFunction",
        "data": {}
      },
      "SIGMOID": {
        "type": "basicneuralnetwork.activationfunctions.SigmoidActivationFunction",
        "data": {}
      }
    }
  },
  "random": {
    "seed": 107738482882189,
    "nextNextGaussian": 0.0,
    "haveNextNextGaussian": false
  },
  "inputNodes": 3,
  "hiddenLayers": 2,
  "hiddenNodes": 9,
  "outputNodes": 10,
  "weights": [
    {
      "mat": {
        "type": "org.ejml.data.DMatrixRMaj",
        "data": {
          "data": [
            -11.722405435963456,
            31.34242069923868,
            -10.880684575678767,
            -1.066350081207442,
            -18.724051328143815,
            20.034677959040934,
            -24.12895203592151,
            0.6525363125810223,
            4.5483676724772195,
            2.302193288164225,
            1.9047110877841789,
            2.9676071918794595,
            -21.58628645908805,
            2.936433452800662,
            11.05759847731826,
            20.03540770858032,
            -3.450292482381939,
            -5.487901190489391,
            -13.057622595112688,
            4.462134482727633,
            -13.154817783332817,
            -12.216413602654896,
            18.279466443487735,
            -5.664453052238239,
            11.243269879349302,
            10.626056459476072,
            -23.42645321008816
          ],
          "numRows": 9,
          "numCols": 3
        }
      },
      "ops": {
        "type": "org.ejml.simple.ops.SimpleOperations_DDRM",
        "data": {}
      }
    },
    {
      "mat": {
        "type": "org.ejml.data.DMatrixRMaj",
        "data": {
          "data": [
            5.447082719033366,
            0.03194661456623599,
            -1.8499058289749508,
            2.0428790471184626,
            1.9018723327776237,
            0.08811907299299383,
            -4.112127541388625,
            3.730428122070134,
            -3.923020456194537,
            -0.8115600353271395,
            4.963752949082466,
            -0.28885332815220904,
            1.2347669125448215,
            0.3174209115700481,
            0.41416747815911703,
            5.156691041844772,
            7.187036638327347,
            -4.494721077840837,
            5.2480086141920275,
            3.1906361749421857,
            -8.395789827250518,
            -0.46512902007121715,
            -1.070693798255451,
            2.923929113986981,
            -7.04534163531534,
            -6.206606066752174,
            -5.80779206736845,
            -7.666031401452159,
            5.195458536666296,
            3.750380219858845,
            0.414266041893389,
            1.4204042111662816,
            -0.5598351783755565,
            -0.9772056508943772,
            -2.236085845872894,
            -3.1845637437417915,
            -3.3683032498214103,
            1.4836695261736597,
            -0.3472329508369086,
            -0.2730357259450918,
            -5.310590655148062,
            4.393039494078544,
            -1.7962998738024094,
            -9.747688484046062,
            2.6196306523773325,
            0.5045518304805838,
            0.34478507990169144,
            -0.09278653409765407,
            2.881173044987847,
            0.1096602688672206,
            1.8358647801501582,
            0.8611655081165376,
            0.9299083862014095,
            0.7309700985655969,
            1.7180259481739149,
            -7.989651010790375,
            0.5144923071125673,
            2.665755308726165,
            -1.1158451448168205,
            0.5522119848903999,
            3.040308160082561,
            0.3467454544337445,
            7.34035203597603,
            -6.862770639924118,
            -3.9790248266363157,
            -6.021044809354099,
            1.2503379018101717,
            -2.0878539830150715,
            5.483952541540032,
            -1.7534192659418577,
            -6.885692549956992,
            7.800336800909766,
            -3.2251228541881396,
            2.8084941431449777,
            -3.6758372200358838,
            -1.9707517771289895,
            -1.2115349940958138,
            0.19975007695713382,
            -1.2644747184855956,
            -1.2722426933042403,
            2.792208065340068
          ],
          "numRows": 9,
          "numCols": 9
        }
      },
      "ops": {
        "type": "org.ejml.simple.ops.SimpleOperations_DDRM",
        "data": {}
      }
    },
    {
      "mat": {
        "type": "org.ejml.data.DMatrixRMaj",
        "data": {
          "data": [
            -2.492914050664827,
            -0.12393951155192917,
            -1.6859489490587116,
            0.9871478319949806,
            0.5911276459919907,
            -2.297193728224471,
            0.6520054599154016,
            1.4199332241509806,
            2.939360640709123,
            -0.6113667176113426,
            -5.480040626395335,
            1.6816617103647682,
            -2.1790935947674788,
            1.9295027138363106,
            -1.0914635423990504,
            1.4736874540192164,
            1.7008372486315244,
            0.46416126452116313,
            -0.6592470240952029,
            -0.05977079278818956,
            -1.042317764717768,
            -1.998656284748138,
            -2.308269511916966,
            -1.1144955681047792,
            0.8280129248454556,
            2.174725733934857,
            0.18784813527011482,
            1.0728783825065842,
            1.3368425430318553,
            -3.211346695835515,
            -4.0712003616769925,
            -3.12655629231478,
            -1.1823964957150155,
            2.7879292511019376,
            -3.3413942195358137,
            0.4141832584050579,
            2.1117513736814026,
            0.6822364533728401,
            -2.5861471532830604,
            1.384651384856681,
            -4.241382282685995,
            -0.7365840112372657,
            -4.822951055622348,
            -2.0151831168833643,
            -1.3307121835608657,
            -0.4963438060905639,
            -0.8463188388351717,
            -3.544510546853287,
            1.1122368556201414,
            4.833350697286346,
            -1.2163210477940187,
            -2.7697975659336604,
            -2.4022854123108845,
            -0.5602922028433943,
            -2.019792431003177,
            0.39856627692735747,
            3.207820437522675,
            0.5484345239294796,
            2.77543358289709,
            -2.6207649699998337,
            -5.555180578259298,
            3.361939094928987,
            1.889565649116936,
            -2.764809481634049,
            0.03539049280850136,
            -2.425779706286303,
            -0.23717802534964527,
            0.5249918919590985,
            -0.25798979017307155,
            0.4041294228122696,
            1.8922724418409391,
            -0.5741358914975685,
            -0.8063011070218675,
            1.1567035440469442,
            6.1622080364858425,
            -3.971371370169593,
            -2.070858514841536,
            -0.4883103000039875,
            -2.053421547321468,
            -3.802537090890439,
            0.5428333240391433,
            -3.621638894916958,
            -1.267289243995067,
            -1.890272517798106,
            3.5789559117643472,
            -2.7215383165479836,
            -1.4171711799725428,
            2.81218641668024,
            -2.7881209551994406,
            -0.05704302146516106
          ],
          "numRows": 10,
          "numCols": 9
        }
      },
      "ops": {
        "type": "org.ejml.simple.ops.SimpleOperations_DDRM",
        "data": {}
      }
    }
  ],
  "biases": [
    {
      "mat": {
        "type": "org.ejml.data.DMatrixRMaj",
        "data": {
          "data": [
            -3.7929559943150797,
            2.0228693682372434,
            15.221885511441581,
            5.672679203482106,
            -0.3378663809156334,
            -0.38458946454979576,
            6.974508566719433,
            -1.5877638637693519,
            -1.4870247465794109
          ],
          "numRows": 9,
          "numCols": 1
        }
      },
      "ops": {
        "type": "org.ejml.simple.ops.SimpleOperations_DDRM",
        "data": {}
      }
    },
    {
      "mat": {
        "type": "org.ejml.data.DMatrixRMaj",
        "data": {
          "data": [
            1.849896715517656,
            1.0485540711621326,
            -0.03362088467938091,
            -0.22383343741398948,
            -0.6998522867069056,
            2.1791789462483457,
            1.2662890228172856,
            2.398486255358713,
            -1.786710886421807
          ],
          "numRows": 9,
          "numCols": 1
        }
      },
      "ops": {
        "type": "org.ejml.simple.ops.SimpleOperations_DDRM",
        "data": {}
      }
    },
    {
      "mat": {
        "type": "org.ejml.data.DMatrixRMaj",
        "data": {
          "data": [
            -1.3376187546466405,
            -1.6551900257741141,
            -0.9588015743690564,
            -1.4880740602620568,
            -0.42146214922444825,
            -1.1589664360725378,
            -2.0045254843582443,
            -1.4433569361874121,
            -0.6196377797929074,
            -0.15438769458551288
          ],
          "numRows": 10,
          "numCols": 1
        }
      },
      "ops": {
        "type": "org.ejml.simple.ops.SimpleOperations_DDRM",
        "data": {}
      }
    }
  ],
  "learningRate": 0.01,
  "activationFunctionKey": "SIGMOID"
}